<?xml version="1.0"?>
<opencv_storage>
<cascade>
  <stageType>BOOST</stageType>
  <featureType>HAAR</featureType>
  <height>20</height>
  <width>20</width>
  <stageParams>
    <boostType>GAB</boostType>
    <minHitRate>9.9500000476837158e-01</minHitRate>
    <maxFalseAlarm>5.0000000000000000e-01</maxFalseAlarm>
    <weightTrimRate>9.4999999999999996e-01</weightTrimRate>
    <maxDepth>1</maxDepth>
    <maxWeakCount>100</maxWeakCount></stageParams>
  <featureParams>
    <maxCatCount>0</maxCatCount>
    <featSize>1</featSize>
    <mode>BASIC</mode></featureParams>
  <stageNum>20</stageNum>
  <stages>
    <!-- stage 0 -->
    <_>
      <maxWeakCount>2</maxWeakCount>
      <stageThreshold>-1.4577935636043549e-01</stageThreshold>
      <weakClassifiers>
        <_>
          <internalNodes>
            0 -1 51 1.8487662076950073e-01</internalNodes>
          <leafValues>
            -8.5377943515777588e-01 8.3940833806991577e-01</leafValues></_>
        <_>
          <internalNodes>
            0 -1 34 5.1473096013069153e-02</internalNodes>
          <leafValues>
            -9.2764830589294434e-01 7.0800006389617920e-01</leafValues></_></weakClassifiers></_>
    <!-- stage 1 -->
    <_>
      <maxWeakCount>6</maxWeakCount>
      <stageThreshold>-1.2631691694259644e+00</stageThreshold>
      <weakClassifiers>
        <_>
          <internalNodes>
            0 -1 12 5.4340763017535210e-03</internalNodes>
          <leafValues>
            -6.4553683996200562e-01 7.2599893808364868e-01</leafValues></_>
        <_>
          <internalNodes>
            0 -1 90 1.1080324649810791e-01</internalNodes>
          <leafValues>
            -6.4154291152954102e-01 5.8086127042770386e-01</leafValues></_>
        <_>
          <internalNodes>
            0 -1 93 -1.4055880717933178e-02</internalNodes>
          <leafValues>
            3.4674230217933655e-01 -8.6952263116836548e-01</leafValues></_>
        <_>
          <internalNodes>
            0 -1 73 4.6218372881412506e-02</internalNodes>
          <leafValues>
            -7.9486852884292603e-01 2.9768005013465881e-01</leafValues></_>
        <_>
          <internalNodes>
            0 -1 132 1.0802831093315035e-04</internalNodes>
          <leafValues>
            2.5788015127182007e-01 -9.1575652360916138e-01</leafValues></_>
        <_>
          <internalNodes>
            0 -1 114 -2.1918769925832748e-04</internalNodes>
          <leafValues>
            -9.4719588756561279e-01 2.1415670216083527e-01</leafValues></_></weakClassifiers></_>
    <!-- stage 2 -->
    <_>
      <maxWeakCount>6</maxWeakCount>
      <stageThreshold>-9.4168341159820557e-01</stageThreshold>
      <weakClassifiers>
        <_>
          <internalNodes>
            0 -1 28 1.7532688379287720e-01</internalNodes>
          <leafValues>
            -6.8390804529190063e-01 6.8662673234939575e-01</leafValues></_>
        <_>
          <internalNodes>
            0 -1 127 1.8381405971013010e-04</internalNodes>
          <leafValues>
            4.5443791151046753e-01 -8.9597892761230469e-01</leafValues></_>
        <_>
          <internalNodes>
            0 -1 127 -1.8885609460994601e-04</internalNodes>
          <leafValues>
            -7.6337236166000366e-01 3.5125625133514404e-01</leafValues></_>
        <_>
          <internalNodes>
            0 -1 147 1.8331725150346756e-02</internalNodes>
          <leafValues>
            -6.1310046911239624e-01 4.7537198662757874e-01</leafValues></_>
        <_>
          <internalNodes>
            0 -1 38 3.7056957371532917e-03</internalNodes>
          <leafValues>
            -8.8057750463485718e-01 3.1219294667243958e-01</leafValues></_>
        <_>
          <internalNodes>
            0 -1 15 7.7113613486289978e-02</internalNodes>
          <leafValues>
            -4.9454882740974426e-01 4.1009050607681274e-01</leafValues></_></weakClassifiers></_>
    <!-- stage 3 -->
    <_>
      <maxWeakCount>5</maxWeakCount>
      <stageThreshold>-1.0533549785614014e+00</stageThreshold>
      <weakClassifiers>
        <_>
          <internalNodes>
            0 -1 114 1.1637419811449945e-04</internalNodes>
          <leafValues>
            6.1118751764297485e-01 -8.3429670333862305e-01</leafValues></_>
        <_>
          <internalNodes>
            0 -1 114 -1.7133458459284157e-04</internalNodes>
          <leafValues>
            -9.3616509437561035e-01 3.5426658391952515e-01</leafValues></_>
        <_>
          <internalNodes>
            0 -1 9 1.1428636498749256e-02</internalNodes>
          <leafValues>
            -5.6426948308944702e-01 5.0669139623641968e-01</leafValues></_>
        <_>
          <internalNodes>
            0 -1 31 1.0352529585361481e-01</internalNodes>
          <leafValues>
            -6.8665105104446411e-01 4.0828895568847656e-01</leafValues></_>
        <_>
          <internalNodes>
            0 -1 101 -3.9066977798938751e-02</internalNodes>
          <leafValues>
            3.0160760879516602e-01 -7.6788860559463501e-01</leafValues></_></weakClassifiers></_>
    <!-- stage 4 -->
    <_>
      <maxWeakCount>7</maxWeakCount>
      <stageThreshold>-8.7017452716827393e-01</stageThreshold>
      <weakClassifiers>
        <_>
          <internalNodes>
            0 -1 153 1.8828332424163818e-02</internalNodes>
          <leafValues>
            -6.0481101274490356e-01 5.9112370014190674e-01</leafValues></_>
        <_>
          <internalNodes>
            0 -1 130 7.2045440902002156e-05</internalNodes>
          <leafValues>
            3.1646662950515747e-01 -9.1230148077011108e-01</leafValues></_>
        <_>
          <internalNodes>
            0 -1 130 -9.2949958343524486e-05</internalNodes>
          <leafValues>
            -8.9478564262390137e-01 2.6912602782249451e-01</leafValues></_>
        <_>
          <internalNodes>
            0 -1 59 1.6104325652122498e-02</internalNodes>
          <leafValues>
            -5.1154059171676636e-01 4.7077366709709167e-01</leafValues></_>
        <_>
          <internalNodes>
            0 -1 123 2.2276886738836765e-03</internalNodes>
          <leafValues>
            -6.3293737173080444e-01 3.4682407975196838e-01</leafValues></_>
        <_>
          <internalNodes>
            0 -1 118 2.3342648637481034e-04</internalNodes>
          <leafValues>
            1.8980020284652710e-01 -9.2622619867324829e-01</leafValues></_>
        <_>
          <internalNodes>
            0 -1 120 -2.2799096768721938e-04</internalNodes>
          <leafValues>
            -8.1738126277923584e-01 2.0796346664428711e-01</leafValues></_></weakClassifiers></_>
    <!-- stage 5 -->
    <_>
      <maxWeakCount>5</maxWeakCount>
      <stageThreshold>-5.9420210123062134e-01</stageThreshold>
      <weakClassifiers>
        <_>
          <internalNodes>
            0 -1 95 -4.5575434342026711e-03</internalNodes>
          <leafValues>
            5.3639513254165649e-01 -8.6224490404129028e-01</leafValues></_>
        <_>
          <internalNodes>
            0 -1 21 1.1649361811578274e-02</internalNodes>
          <leafValues>
            -5.4093927145004272e-01 4.8476451635360718e-01</leafValues></_>
        <_>
          <internalNodes>
            0 -1 136 -1.1732972052413970e-04</internalNodes>
          <leafValues>
            -8.9706826210021973e-01 3.1789818406105042e-01</leafValues></_>
        <_>
          <internalNodes>
            0 -1 46 5.5484205484390259e-02</internalNodes>
          <leafValues>
            -7.4577218294143677e-01 2.6988852024078369e-01</leafValues></_>
        <_>
          <internalNodes>
            0 -1 136 6.3510677136946470e-05</internalNodes>
          <leafValues>
            2.1115228533744812e-01 -9.0110862255096436e-01</leafValues></_></weakClassifiers></_>
    <!-- stage 6 -->
    <_>
      <maxWeakCount>7</maxWeakCount>
      <stageThreshold>-7.2894859313964844e-01</stageThreshold>
      <weakClassifiers>
        <_>
          <internalNodes>
            0 -1 50 1.2355268001556396e-02</internalNodes>
          <leafValues>
            -6.7395627498626709e-01 5.6395083665847778e-01</leafValues></_>
        <_>
          <internalNodes>
            0 -1 7 1.6587160527706146e-02</internalNodes>
          <leafValues>
            -3.8763120770454407e-01 6.0938334465026855e-01</leafValues></_>
        <_>
          <internalNodes>
            0 -1 150 1.4021689072251320e-02</internalNodes>
          <leafValues>
            -4.4149741530418396e-01 4.9618694186210632e-01</leafValues></_>
        <_>
          <internalNodes>
            0 -1 109 8.3155333413742483e-05</internalNodes>
          <leafValues>
            2.6904237270355225e-01 -7.3906093835830688e-01</leafValues></_>
        <_>
          <internalNodes>
            0 -1 119 -2.7922849403694272e-04</internalNodes>
          <leafValues>
            -9.0804642438888550e-01 1.9638329744338989e-01</leafValues></_>
        <_>
          <internalNodes>
            0 -1 99 -3.5619307309389114e-03</internalNodes>
          <leafValues>
            1.6014102101325989e-01 -8.9419883489608765e-01</leafValues></_>
        <_>
          <internalNodes>
            0 -1 112 -9.3920054496265948e-05</internalNodes>
          <leafValues>
            -8.7218505144119263e-01 1.4856958389282227e-01</leafValues></_></weakClassifiers></_>
    <!-- stage 7 -->
    <_>
      <maxWeakCount>10</maxWeakCount>
      <stageThreshold>-9.9952900409698486e-01</stageThreshold>
      <weakClassifiers>
        <_>
          <internalNodes>
            0 -1 118 -2.1472160005941987e-04</internalNodes>
          <leafValues>
            -5.9541982412338257e-01 5.5698531866073608e-01</leafValues></_>
        <_>
          <internalNodes>
            0 -1 64 -1.2205485254526138e-02</internalNodes>
          <leafValues>
            4.4918918609619141e-01 -4.9566087126731873e-01</leafValues></_>
        <_>
          <internalNodes>
            0 -1 104 5.5126743391156197e-03</internalNodes>
          <leafValues>
            -4.6307644248008728e-01 4.0379247069358826e-01</leafValues></_>
        <_>
          <internalNodes>
            0 -1 33 1.6921913623809814e-01</internalNodes>
          <leafValues>
            -6.3678371906280518e-01 2.8451156616210938e-01</leafValues></_>
        <_>
          <internalNodes>
            0 -1 115 1.2491497909650207e-04</internalNodes>
          <leafValues>
            1.5968932211399078e-01 -8.0957263708114624e-01</leafValues></_>
        <_>
          <internalNodes>
            0 -1 8 4.3106926605105400e-03</internalNodes>
          <leafValues>
            -8.3490878343582153e-01 1.5930785238742828e-01</leafValues></_>
        <_>
          <internalNodes>
            0 -1 126 7.7934979344718158e-05</internalNodes>
          <leafValues>
            1.7486123740673065e-01 -7.2381228208541870e-01</leafValues></_>
        <_>
          <internalNodes>
            0 -1 111 -1.8312779138796031e-04</internalNodes>
          <leafValues>
            -9.4415730237960815e-01 1.2465771287679672e-01</leafValues></_>
        <_>
          <internalNodes>
            0 -1 148 6.4793536439538002e-03</internalNodes>
          <leafValues>
            -4.9531811475753784e-01 3.0115243792533875e-01</leafValues></_>
        <_>
          <internalNodes>
            0 -1 94 -3.8823406212031841e-03</internalNodes>
          <leafValues>
            2.0134498178958893e-01 -6.9406682252883911e-01</leafValues></_></weakClassifiers></_>
    <!-- stage 8 -->
    <_>
      <maxWeakCount>11</maxWeakCount>
      <stageThreshold>-1.0788960456848145e+00</stageThreshold>
      <weakClassifiers>
        <_>
          <internalNodes>
            0 -1 180 -6.2643811106681824e-03</internalNodes>
          <leafValues>
            7.5689047574996948e-01 -1.3307392597198486e-01</leafValues></_>
        <_>
          <internalNodes>
            0 -1 10 1.9956387113779783e-03</internalNodes>
          <leafValues>
            -7.1948701143264771e-01 3.2636636495590210e-01</leafValues></_>
        <_>
          <internalNodes>
            0 -1 111 1.4266208745539188e-04</internalNodes>
          <leafValues>
            2.1184764802455902e-01 -7.4424630403518677e-01</leafValues></_>
        <_>
          <internalNodes>
            0 -1 35 2.2287052124738693e-02</internalNodes>
          <leafValues>
            -6.3438284397125244e-01 2.7688124775886536e-01</leafValues></_>
        <_>
          <internalNodes>
            0 -1 49 2.0401645451784134e-02</internalNodes>
          <leafValues>
            -2.9991924762725830e-01 6.0853767395019531e-01</leafValues></_>
        <_>
          <internalNodes>
            0 -1 48 -6.2239263206720352e-03</internalNodes>
          <leafValues>
            5.2730977535247803e-01 -3.8801935315132141e-01</leafValues></_>
        <_>
          <internalNodes>
            0 -1 97 -2.2414648265112191e-04</internalNodes>
          <leafValues>
            -9.0151524543762207e-01 2.6428344845771790e-01</leafValues></_>
        <_>
          <internalNodes>
            0 -1 103 4.1989637538790703e-03</internalNodes>
          <leafValues>
            -3.2011815905570984e-01 5.0615674257278442e-01</leafValues></_>
        <_>
          <internalNodes>
            0 -1 19 5.5376007221639156e-03</internalNodes>
          <leafValues>
            -2.5214001536369324e-01 6.1939585208892822e-01</leafValues></_>
        <_>
          <internalNodes>
            0 -1 146 -1.2759826495312154e-04</internalNodes>
          <leafValues>
            -7.8870528936386108e-01 1.9183328747749329e-01</leafValues></_>
        <_>
          <internalNodes>
            0 -1 138 7.0584370405413210e-05</internalNodes>
          <leafValues>
            1.3665308058261871e-01 -8.6519151926040649e-01</leafValues></_></weakClassifiers></_>
    <!-- stage 9 -->
    <_>
      <maxWeakCount>9</maxWeakCount>
      <stageThreshold>-9.6476322412490845e-01</stageThreshold>
      <weakClassifiers>
        <_>
          <internalNodes>
            0 -1 151 2.1270569413900375e-02</internalNodes>
          <leafValues>
            -6.2452107667922974e-01 5.6290173530578613e-01</leafValues></_>
        <_>
          <internalNodes>
            0 -1 82 -4.2187176644802094e-02</internalNodes>
          <leafValues>
            3.4192281961441040e-01 -6.6513490676879883e-01</leafValues></_>
        <_>
          <internalNodes>
            0 -1 97 8.2353508332744241e-05</internalNodes>
          <leafValues>
            2.7801001071929932e-01 -7.2254830598831177e-01</leafValues></_>
        <_>
          <internalNodes>
            0 -1 58 7.6370518654584885e-03</internalNodes>
          <leafValues>
            -8.3400928974151611e-01 1.8095505237579346e-01</leafValues></_>
        <_>
          <internalNodes>
            0 -1 156 5.4131494835019112e-03</internalNodes>
          <leafValues>
            -4.7973048686981201e-01 3.3943292498588562e-01</leafValues></_>
        <_>
          <internalNodes>
            0 -1 105 1.0252945125102997e-02</internalNodes>
          <leafValues>
            -2.8185394406318665e-01 5.2181780338287354e-01</leafValues></_>
        <_>
          <internalNodes>
            0 -1 40 1.3848285889253020e-03</internalNodes>
          <leafValues>
            -5.0312256813049316e-01 3.4778356552124023e-01</leafValues></_>
        <_>
          <internalNodes>
            0 -1 174 1.5810036566108465e-03</internalNodes>
          <leafValues>
            -2.4289165437221527e-01 5.8244848251342773e-01</leafValues></_>
        <_>
          <internalNodes>
            0 -1 80 -1.3010529801249504e-02</internalNodes>
          <leafValues>
            5.3052687644958496e-01 -3.1647089123725891e-01</leafValues></_></weakClassifiers></_>
    <!-- stage 10 -->
    <_>
      <maxWeakCount>10</maxWeakCount>
      <stageThreshold>-8.9201372861862183e-01</stageThreshold>
      <weakClassifiers>
        <_>
          <internalNodes>
            0 -1 96 1.4674698468297720e-04</internalNodes>
          <leafValues>
            5.3594177961349487e-01 -5.5378484725952148e-01</leafValues></_>
        <_>
          <internalNodes>
            0 -1 6 1.3893544673919678e-02</internalNodes>
          <leafValues>
            -3.3300870656967163e-01 5.3237634897232056e-01</leafValues></_>
        <_>
          <internalNodes>
            0 -1 70 -2.3162301629781723e-02</internalNodes>
          <leafValues>
            2.1005684137344360e-01 -8.4185379743576050e-01</leafValues></_>
        <_>
          <internalNodes>
            0 -1 29 -6.9017820060253143e-03</internalNodes>
          <leafValues>
            6.1822068691253662e-01 -2.5799047946929932e-01</leafValues></_>
        <_>
          <internalNodes>
            0 -1 83 -1.4420106890611351e-04</internalNodes>
          <leafValues>
            -9.3739563226699829e-01 1.3741953670978546e-01</leafValues></_>
        <_>
          <internalNodes>
            0 -1 160 3.4224768169224262e-03</internalNodes>
          <leafValues>
            -3.1672096252441406e-01 5.0013077259063721e-01</leafValues></_>
        <_>
          <internalNodes>
            0 -1 144 9.1484485892578959e-05</internalNodes>
          <leafValues>
            1.9867470860481262e-01 -7.2477948665618896e-01</leafValues></_>
        <_>
          <internalNodes>
            0 -1 145 -9.0878325863741338e-05</internalNodes>
          <leafValues>
            -8.3816826343536377e-01 1.5640054643154144e-01</leafValues></_>
        <_>
          <internalNodes>
            0 -1 158 1.4804854057729244e-02</internalNodes>
          <leafValues>
            -6.1987709999084473e-01 2.0436199009418488e-01</leafValues></_>
        <_>
          <internalNodes>
            0 -1 88 5.1113843917846680e-02</internalNodes>
          <leafValues>
            -1.6924701631069183e-01 8.1870532035827637e-01</leafValues></_></weakClassifiers></_>
    <!-- stage 11 -->
    <_>
      <maxWeakCount>10</maxWeakCount>
      <stageThreshold>-6.8700158596038818e-01</stageThreshold>
      <weakClassifiers>
        <_>
          <internalNodes>
            0 -1 168 1.4861415365885478e-05</internalNodes>
          <leafValues>
            -3.9663094282150269e-01 5.6619441509246826e-01</leafValues></_>
        <_>
          <internalNodes>
            0 -1 113 9.5823765150271356e-05</internalNodes>
          <leafValues>
            2.2888192534446716e-01 -7.7215617895126343e-01</leafValues></_>
        <_>
          <internalNodes>
            0 -1 140 1.3209816068410873e-02</internalNodes>
          <leafValues>
            -2.7786776423454285e-01 5.6341683864593506e-01</leafValues></_>
        <_>
          <internalNodes>
            0 -1 57 1.7251279205083847e-02</internalNodes>
          <leafValues>
            -2.8615412116050720e-01 5.1649987697601318e-01</leafValues></_>
        <_>
          <internalNodes>
            0 -1 122 3.2393955625593662e-03</internalNodes>
          <leafValues>
            -7.5028282403945923e-01 1.9377714395523071e-01</leafValues></_>
        <_>
          <internalNodes>
            0 -1 74 -5.4022306576371193e-03</internalNodes>
          <leafValues>
            6.9754815101623535e-01 -2.2571836411952972e-01</leafValues></_>
        <_>
          <internalNodes>
            0 -1 134 5.6304423196706921e-05</internalNodes>
          <leafValues>
            2.3876877129077911e-01 -6.7884945869445801e-01</leafValues></_>
        <_>
          <internalNodes>
            0 -1 45 5.4045226424932480e-02</internalNodes>
          <leafValues>
            -6.3753861188888550e-01 2.4803543090820312e-01</leafValues></_>
        <_>
          <internalNodes>
            0 -1 110 -1.5960952441673726e-04</internalNodes>
          <leafValues>
            -8.3014929294586182e-01 1.0976611822843552e-01</leafValues></_>
        <_>
          <internalNodes>
            0 -1 26 5.2985675632953644e-02</internalNodes>
          <leafValues>
            -3.2147568464279175e-01 4.0919572114944458e-01</leafValues></_></weakClassifiers></_>
    <!-- stage 12 -->
    <_>
      <maxWeakCount>11</maxWeakCount>
      <stageThreshold>-8.6184668540954590e-01</stageThreshold>
      <weakClassifiers>
        <_>
          <internalNodes>
            0 -1 13 4.6427063643932343e-03</internalNodes>
          <leafValues>
            -4.1935482621192932e-01 5.2941179275512695e-01</leafValues></_>
        <_>
          <internalNodes>
            0 -1 181 -7.6355612836778164e-03</internalNodes>
          <leafValues>
            4.4906783103942871e-01 -3.4800529479980469e-01</leafValues></_>
        <_>
          <internalNodes>
            0 -1 161 -2.3638531565666199e-02</internalNodes>
          <leafValues>
            5.3912079334259033e-01 -2.5726750493049622e-01</leafValues></_>
        <_>
          <internalNodes>
            0 -1 126 -1.2217898620292544e-04</internalNodes>
          <leafValues>
            -9.5101660490036011e-01 1.6762286424636841e-01</leafValues></_>
        <_>
          <internalNodes>
            0 -1 42 3.5500377416610718e-02</internalNodes>
          <leafValues>
            -3.0143329501152039e-01 5.2334553003311157e-01</leafValues></_>
        <_>
          <internalNodes>
            0 -1 53 3.0277190729975700e-02</internalNodes>
          <leafValues>
            -7.0104318857192993e-01 1.8462492525577545e-01</leafValues></_>
        <_>
          <internalNodes>
            0 -1 14 -1.6465719789266586e-02</internalNodes>
          <leafValues>
            3.9423850178718567e-01 -3.5803830623626709e-01</leafValues></_>
        <_>
          <internalNodes>
            0 -1 86 1.9828878343105316e-02</internalNodes>
          <leafValues>
            -2.1549612283706665e-01 7.7435696125030518e-01</leafValues></_>
        <_>
          <internalNodes>
            0 -1 79 -2.2381674498319626e-02</internalNodes>
          <leafValues>
            5.3306484222412109e-01 -3.4831580519676208e-01</leafValues></_>
        <_>
          <internalNodes>
            0 -1 134 -2.0108904573135078e-04</internalNodes>
          <leafValues>
            -9.1958403587341309e-01 1.6493090987205505e-01</leafValues></_>
        <_>
          <internalNodes>
            0 -1 60 1.8592595588415861e-03</internalNodes>
          <leafValues>
            -8.2860642671585083e-01 1.1660899966955185e-01</leafValues></_></weakClassifiers></_>
    <!-- stage 13 -->
    <_>
      <maxWeakCount>13</maxWeakCount>
      <stageThreshold>-8.0661141872406006e-01</stageThreshold>
      <weakClassifiers>
        <_>
          <internalNodes>
            0 -1 18 1.1304828524589539e-01</internalNodes>
          <leafValues>
            -5.0315791368484497e-01 5.1191014051437378e-01</leafValues></_>
        <_>
          <internalNodes>
            0 -1 155 3.2342472113668919e-03</internalNodes>
          <leafValues>
            -5.4182392358779907e-01 3.2860663533210754e-01</leafValues></_>
        <_>
          <internalNodes>
            0 -1 107 9.9768432846758515e-05</internalNodes>
          <leafValues>
            2.9936540126800537e-01 -5.4084873199462891e-01</leafValues></_>
        <_>
          <internalNodes>
            0 -1 4 1.9448440521955490e-02</internalNodes>
          <leafValues>
            -3.5349604487419128e-01 3.9925858378410339e-01</leafValues></_>
        <_>
          <internalNodes>
            0 -1 116 1.0071192809846252e-04</internalNodes>
          <leafValues>
            1.4452764391899109e-01 -8.9345288276672363e-01</leafValues></_>
        <_>
          <internalNodes>
            0 -1 102 7.4911423027515411e-02</internalNodes>
          <leafValues>
            -2.0990514755249023e-01 6.7672318220138550e-01</leafValues></_>
        <_>
          <internalNodes>
            0 -1 67 1.6614088788628578e-02</internalNodes>
          <leafValues>
            -3.5016161203384399e-01 4.5875310897827148e-01</leafValues></_>
        <_>
          <internalNodes>
            0 -1 135 -4.7534918412566185e-03</internalNodes>
          <leafValues>
            1.6040846705436707e-01 -8.5584586858749390e-01</leafValues></_>
        <_>
          <internalNodes>
            0 -1 71 -1.5229569748044014e-02</internalNodes>
          <leafValues>
            1.9579537212848663e-01 -5.4507976770401001e-01</leafValues></_>
        <_>
          <internalNodes>
            0 -1 36 -2.7930750511586666e-03</internalNodes>
          <leafValues>
            5.2188402414321899e-01 -2.2817294299602509e-01</leafValues></_>
        <_>
          <internalNodes>
            0 -1 139 -8.8227237574756145e-04</internalNodes>
          <leafValues>
            -7.1264827251434326e-01 1.7638388276100159e-01</leafValues></_>
        <_>
          <internalNodes>
            0 -1 37 -6.6084333229809999e-04</internalNodes>
          <leafValues>
            4.6996805071830750e-01 -2.4810047447681427e-01</leafValues></_>
        <_>
          <internalNodes>
            0 -1 81 8.9391939342021942e-02</internalNodes>
          <leafValues>
            -1.3703826069831848e-01 7.9070103168487549e-01</leafValues></_></weakClassifiers></_>
    <!-- stage 14 -->
    <_>
      <maxWeakCount>14</maxWeakCount>
      <stageThreshold>-9.5011901855468750e-01</stageThreshold>
      <weakClassifiers>
        <_>
          <internalNodes>
            0 -1 99 -6.6042672842741013e-03</internalNodes>
          <leafValues>
            4.7249054908752441e-01 -7.0532917976379395e-01</leafValues></_>
        <_>
          <internalNodes>
            0 -1 61 2.9892008751630783e-02</internalNodes>
          <leafValues>
            -3.4593465924263000e-01 4.4451105594635010e-01</leafValues></_>
        <_>
          <internalNodes>
            0 -1 72 2.2852584719657898e-02</internalNodes>
          <leafValues>
            -7.1626925468444824e-01 2.3316447436809540e-01</leafValues></_>
        <_>
          <internalNodes>
            0 -1 124 1.0232964996248484e-04</internalNodes>
          <leafValues>
            2.2809159755706787e-01 -6.0860449075698853e-01</leafValues></_>
        <_>
          <internalNodes>
            0 -1 3 1.8012274056673050e-02</internalNodes>
          <leafValues>
            -2.5738868117332458e-01 5.0146067142486572e-01</leafValues></_>
        <_>
          <internalNodes>
            0 -1 98 -2.9034120962023735e-04</internalNodes>
          <leafValues>
            -5.3641223907470703e-01 2.1308481693267822e-01</leafValues></_>
        <_>
          <internalNodes>
            0 -1 43 1.6830589622259140e-02</internalNodes>
          <leafValues>
            -3.2086682319641113e-01 4.3411070108413696e-01</leafValues></_>
        <_>
          <internalNodes>
            0 -1 76 4.1450753808021545e-02</internalNodes>
          <leafValues>
            -3.8631114363670349e-01 3.5131290555000305e-01</leafValues></_>
        <_>
          <internalNodes>
            0 -1 170 7.8155919909477234e-02</internalNodes>
          <leafValues>
            -4.0111699700355530e-01 3.6390611529350281e-01</leafValues></_>
        <_>
          <internalNodes>
            0 -1 1 1.3457652926445007e-01</internalNodes>
          <leafValues>
            1.6426141560077667e-01 -6.7250394821166992e-01</leafValues></_>
        <_>
          <internalNodes>
            0 -1 166 5.2166711539030075e-03</internalNodes>
          <leafValues>
            -1.9509962201118469e-01 6.6346508264541626e-01</leafValues></_>
        <_>
          <internalNodes>
            0 -1 114 -2.2142968373373151e-04</internalNodes>
          <leafValues>
            -9.7350305318832397e-01 1.2592132389545441e-01</leafValues></_>
        <_>
          <internalNodes>
            0 -1 163 1.2545941863209009e-03</internalNodes>
          <leafValues>
            -2.9921078681945801e-01 3.5363987088203430e-01</leafValues></_>
        <_>
          <internalNodes>
            0 -1 129 9.7889928147196770e-03</internalNodes>
          <leafValues>
            -3.1207159161567688e-01 3.2568460702896118e-01</leafValues></_></weakClassifiers></_>
    <!-- stage 15 -->
    <_>
      <maxWeakCount>13</maxWeakCount>
      <stageThreshold>-8.8261061906814575e-01</stageThreshold>
      <weakClassifiers>
        <_>
          <internalNodes>
            0 -1 41 3.8632984797004610e-05</internalNodes>
          <leafValues>
            -5.7411271333694458e-01 5.2904099225997925e-01</leafValues></_>
        <_>
          <internalNodes>
            0 -1 30 -4.2020015418529510e-02</internalNodes>
          <leafValues>
            7.0743012428283691e-01 -1.7883889377117157e-01</leafValues></_>
        <_>
          <internalNodes>
            0 -1 112 6.3916646467987448e-05</internalNodes>
          <leafValues>
            1.9374313950538635e-01 -7.9535454511642456e-01</leafValues></_>
        <_>
          <internalNodes>
            0 -1 32 1.0984300076961517e-01</internalNodes>
          <leafValues>
            -7.0050102472305298e-01 1.7631293833255768e-01</leafValues></_>
        <_>
          <internalNodes>
            0 -1 167 8.2094185054302216e-03</internalNodes>
          <leafValues>
            -2.7861765027046204e-01 4.5201277732849121e-01</leafValues></_>
        <_>
          <internalNodes>
            0 -1 113 -1.4835275942459702e-04</internalNodes>
          <leafValues>
            -9.1368943452835083e-01 1.5299504995346069e-01</leafValues></_>
        <_>
          <internalNodes>
            0 -1 149 1.3230016455054283e-02</internalNodes>
          <leafValues>
            -5.4817587137222290e-01 2.1413651108741760e-01</leafValues></_>
        <_>
          <internalNodes>
            0 -1 44 -5.6162597611546516e-03</internalNodes>
          <leafValues>
            5.4225534200668335e-01 -2.1671345829963684e-01</leafValues></_>
        <_>
          <internalNodes>
            0 -1 121 -3.5967462463304400e-04</internalNodes>
          <leafValues>
            -4.6784082055091858e-01 2.5968074798583984e-01</leafValues></_>
        <_>
          <internalNodes>
            0 -1 63 1.4768410474061966e-02</internalNodes>
          <leafValues>
            -3.2105034589767456e-01 3.9471334218978882e-01</leafValues></_>
        <_>
          <internalNodes>
            0 -1 66 -5.8972448110580444e-02</internalNodes>
          <leafValues>
            8.8103038072586060e-01 -1.3702252507209778e-01</leafValues></_>
        <_>
          <internalNodes>
            0 -1 84 -2.3719038814306259e-02</internalNodes>
          <leafValues>
            5.2076798677444458e-01 -2.1876785159111023e-01</leafValues></_>
        <_>
          <internalNodes>
            0 -1 0 4.2263939976692200e-02</internalNodes>
          <leafValues>
            -5.5239754915237427e-01 2.2947119176387787e-01</leafValues></_></weakClassifiers></_>
    <!-- stage 16 -->
    <_>
      <maxWeakCount>12</maxWeakCount>
      <stageThreshold>-8.4976249933242798e-01</stageThreshold>
      <weakClassifiers>
        <_>
          <internalNodes>
            0 -1 11 2.8888373635709286e-03</internalNodes>
          <leafValues>
            -4.3272727727890015e-01 5.2930229902267456e-01</leafValues></_>
        <_>
          <internalNodes>
            0 -1 177 8.8178254663944244e-03</internalNodes>
          <leafValues>
            -1.6057781875133514e-01 6.6534811258316040e-01</leafValues></_>
        <_>
          <internalNodes>
            0 -1 22 7.0024557411670685e-02</internalNodes>
          <leafValues>
            -1.8772417306900024e-01 6.0526001453399658e-01</leafValues></_>
        <_>
          <internalNodes>
            0 -1 17 2.4813201278448105e-02</internalNodes>
          <leafValues>
            -7.0976555347442627e-01 1.8053427338600159e-01</leafValues></_>
        <_>
          <internalNodes>
            0 -1 68 8.0323799920734018e-05</internalNodes>
          <leafValues>
            2.8173139691352844e-01 -4.4573968648910522e-01</leafValues></_>
        <_>
          <internalNodes>
            0 -1 159 3.6449819803237915e-02</internalNodes>
          <leafValues>
            -1.4188510179519653e-01 8.7676507234573364e-01</leafValues></_>
        <_>
          <internalNodes>
            0 -1 141 3.0798047780990601e-02</internalNodes>
          <leafValues>
            -2.2806324064731598e-01 6.1441683769226074e-01</leafValues></_>
        <_>
          <internalNodes>
            0 -1 87 6.8707719445228577e-02</internalNodes>
          <leafValues>
            -1.4939504861831665e-01 7.2085171937942505e-01</leafValues></_>
        <_>
          <internalNodes>
            0 -1 169 -1.4459641533903778e-04</internalNodes>
          <leafValues>
            -5.1057738065719604e-01 2.9325872659683228e-01</leafValues></_>
        <_>
          <internalNodes>
            0 -1 128 -2.2926242672838271e-04</internalNodes>
          <leafValues>
            -8.7130457162857056e-01 1.4770038425922394e-01</leafValues></_>
        <_>
          <internalNodes>
            0 -1 92 -9.4753364101052284e-03</internalNodes>
          <leafValues>
            1.6212537884712219e-01 -5.7733285427093506e-01</leafValues></_>
        <_>
          <internalNodes>
            0 -1 131 9.0452231233939528e-05</internalNodes>
          <leafValues>
            1.2358299642801285e-01 -9.2918229103088379e-01</leafValues></_></weakClassifiers></_>
    <!-- stage 17 -->
    <_>
      <maxWeakCount>16</maxWeakCount>
      <stageThreshold>-1.0806493759155273e+00</stageThreshold>
      <weakClassifiers>
        <_>
          <internalNodes>
            0 -1 62 -1.4373790472745895e-02</internalNodes>
          <leafValues>
            6.0815399885177612e-01 -1.8629550933837891e-01</leafValues></_>
        <_>
          <internalNodes>
            0 -1 179 -8.2268919795751572e-03</internalNodes>
          <leafValues>
            5.2170944213867188e-01 -2.6535862684249878e-01</leafValues></_>
        <_>
          <internalNodes>
            0 -1 165 1.6633261111564934e-04</internalNodes>
          <leafValues>
            2.1338644623756409e-01 -6.2024521827697754e-01</leafValues></_>
        <_>
          <internalNodes>
            0 -1 125 2.9232839122414589e-02</internalNodes>
          <leafValues>
            -2.2824540734291077e-01 5.0941818952560425e-01</leafValues></_>
        <_>
          <internalNodes>
            0 -1 23 4.9446016550064087e-02</internalNodes>
          <leafValues>
            -2.6875925064086914e-01 5.8214008808135986e-01</leafValues></_>
        <_>
          <internalNodes>
            0 -1 178 -5.8177160099148750e-03</internalNodes>
          <leafValues>
            5.5158603191375732e-01 -1.8688887357711792e-01</leafValues></_>
        <_>
          <internalNodes>
            0 -1 108 5.8453995734453201e-05</internalNodes>
          <leafValues>
            2.2871388494968414e-01 -4.6984854340553284e-01</leafValues></_>
        <_>
          <internalNodes>
            0 -1 85 2.3029092699289322e-02</internalNodes>
          <leafValues>
            -1.9614332914352417e-01 6.6043710708618164e-01</leafValues></_>
        <_>
          <internalNodes>
            0 -1 157 2.0374886691570282e-02</internalNodes>
          <leafValues>
            -5.8067911863327026e-01 2.4127562344074249e-01</leafValues></_>
        <_>
          <internalNodes>
            0 -1 5 -1.1076619848608971e-02</internalNodes>
          <leafValues>
            -8.3338952064514160e-01 1.1785706132650375e-01</leafValues></_>
        <_>
          <internalNodes>
            0 -1 27 -3.9675673469901085e-03</internalNodes>
          <leafValues>
            5.2641355991363525e-01 -2.4036793410778046e-01</leafValues></_>
        <_>
          <internalNodes>
            0 -1 55 -4.2385635897517204e-03</internalNodes>
          <leafValues>
            7.3924481868743896e-01 -1.5233615040779114e-01</leafValues></_>
        <_>
          <internalNodes>
            0 -1 164 -6.5098007326014340e-05</internalNodes>
          <leafValues>
            2.0493851602077484e-01 -6.1102086305618286e-01</leafValues></_>
        <_>
          <internalNodes>
            0 -1 47 -5.6471012067049742e-04</internalNodes>
          <leafValues>
            3.5735583305358887e-01 -3.1681865453720093e-01</leafValues></_>
        <_>
          <internalNodes>
            0 -1 78 -1.2167675420641899e-02</internalNodes>
          <leafValues>
            -6.2696844339370728e-01 1.6754128038883209e-01</leafValues></_>
        <_>
          <internalNodes>
            0 -1 54 -4.4467725092545152e-04</internalNodes>
          <leafValues>
            5.0594079494476318e-01 -2.1555365622043610e-01</leafValues></_></weakClassifiers></_>
    <!-- stage 18 -->
    <_>
      <maxWeakCount>14</maxWeakCount>
      <stageThreshold>-8.9701437950134277e-01</stageThreshold>
      <weakClassifiers>
        <_>
          <internalNodes>
            0 -1 77 -7.9416083171963692e-03</internalNodes>
          <leafValues>
            5.7928121089935303e-01 -2.4257425963878632e-01</leafValues></_>
        <_>
          <internalNodes>
            0 -1 2 8.0115636810660362e-03</internalNodes>
          <leafValues>
            -2.8762766718864441e-01 4.6054682135581970e-01</leafValues></_>
        <_>
          <internalNodes>
            0 -1 173 -2.2771934163756669e-04</internalNodes>
          <leafValues>
            -7.3641222715377808e-01 1.6522514820098877e-01</leafValues></_>
        <_>
          <internalNodes>
            0 -1 143 1.4957714825868607e-02</internalNodes>
          <leafValues>
            -2.5106123089790344e-01 4.6145960688591003e-01</leafValues></_>
        <_>
          <internalNodes>
            0 -1 89 -7.4365418404340744e-03</internalNodes>
          <leafValues>
            5.6813430786132812e-01 -2.2130109369754791e-01</leafValues></_>
        <_>
          <internalNodes>
            0 -1 16 5.3254491090774536e-01</internalNodes>
          <leafValues>
            -2.4812848865985870e-01 4.7482156753540039e-01</leafValues></_>
        <_>
          <internalNodes>
            0 -1 106 9.9303404567763209e-05</internalNodes>
          <leafValues>
            4.8981693387031555e-01 -2.9760187864303589e-01</leafValues></_>
        <_>
          <internalNodes>
            0 -1 20 9.7873229533433914e-03</internalNodes>
          <leafValues>
            -7.3611694574356079e-01 1.6311602294445038e-01</leafValues></_>
        <_>
          <internalNodes>
            0 -1 75 -2.9141665436327457e-04</internalNodes>
          <leafValues>
            6.1028450727462769e-01 -2.1470996737480164e-01</leafValues></_>
        <_>
          <internalNodes>
            0 -1 117 1.5073112444952130e-04</internalNodes>
          <leafValues>
            1.6215901076793671e-01 -8.4520775079727173e-01</leafValues></_>
        <_>
          <internalNodes>
            0 -1 24 -4.2301198118366301e-04</internalNodes>
          <leafValues>
            3.9458110928535461e-01 -3.2188525795936584e-01</leafValues></_>
        <_>
          <internalNodes>
            0 -1 162 -4.3867034837603569e-03</internalNodes>
          <leafValues>
            5.6394684314727783e-01 -2.0103636384010315e-01</leafValues></_>
        <_>
          <internalNodes>
            0 -1 176 -6.9443492975551635e-05</internalNodes>
          <leafValues>
            2.0014424622058868e-01 -5.7864326238632202e-01</leafValues></_>
        <_>
          <internalNodes>
            0 -1 137 3.6993835237808526e-05</internalNodes>
          <leafValues>
            1.2878023087978363e-01 -7.4127900600433350e-01</leafValues></_></weakClassifiers></_>
    <!-- stage 19 -->
    <_>
      <maxWeakCount>15</maxWeakCount>
      <stageThreshold>-8.3242958784103394e-01</stageThreshold>
      <weakClassifiers>
        <_>
          <internalNodes>
            0 -1 133 -3.3220760087715462e-05</internalNodes>
          <leafValues>
            4.8301073908805847e-01 -5.9466665983200073e-01</leafValues></_>
        <_>
          <internalNodes>
            0 -1 100 -4.1499600047245622e-04</internalNodes>
          <leafValues>
            -4.0939140319824219e-01 3.8507321476936340e-01</leafValues></_>
        <_>
          <internalNodes>
            0 -1 25 1.1767441406846046e-02</internalNodes>
          <leafValues>
            -5.3349334001541138e-01 3.2470360398292542e-01</leafValues></_>
        <_>
          <internalNodes>
            0 -1 175 -1.2489854998420924e-04</internalNodes>
          <leafValues>
            1.8742200732231140e-01 -7.4189656972885132e-01</leafValues></_>
        <_>
          <internalNodes>
            0 -1 91 1.9659444224089384e-03</internalNodes>
          <leafValues>
            2.7190327644348145e-01 -4.5792227983474731e-01</leafValues></_>
        <_>
          <internalNodes>
            0 -1 39 7.6713338494300842e-02</internalNodes>
          <leafValues>
            -5.1488053798675537e-01 2.2992976009845734e-01</leafValues></_>
        <_>
          <internalNodes>
            0 -1 69 -6.0326717793941498e-02</internalNodes>
          <leafValues>
            -5.6699484586715698e-01 2.1870526671409607e-01</leafValues></_>
        <_>
          <internalNodes>
            0 -1 171 -5.7048923335969448e-03</internalNodes>
          <leafValues>
            5.4245626926422119e-01 -2.7892312407493591e-01</leafValues></_>
        <_>
          <internalNodes>
            0 -1 154 2.4911593645811081e-02</internalNodes>
          <leafValues>
            -2.6783859729766846e-01 4.8357465863227844e-01</leafValues></_>
        <_>
          <internalNodes>
            0 -1 65 5.6316843256354332e-04</internalNodes>
          <leafValues>
            -8.3911752700805664e-01 1.8695147335529327e-01</leafValues></_>
        <_>
          <internalNodes>
            0 -1 152 8.3741545677185059e-03</internalNodes>
          <leafValues>
            -7.3218488693237305e-01 1.1172622442245483e-01</leafValues></_>
        <_>
          <internalNodes>
            0 -1 52 6.6431751474738121e-03</internalNodes>
          <leafValues>
            -2.3760885000228882e-01 5.0945824384689331e-01</leafValues></_>
        <_>
          <internalNodes>
            0 -1 56 -5.9764366596937180e-03</internalNodes>
          <leafValues>
            5.6515532732009888e-01 -2.3618541657924652e-01</leafValues></_>
        <_>
          <internalNodes>
            0 -1 142 5.5846886243671179e-04</internalNodes>
          <leafValues>
            -1.9783002138137817e-01 5.5249285697937012e-01</leafValues></_>
        <_>
          <internalNodes>
            0 -1 172 3.7115858867764473e-04</internalNodes>
          <leafValues>
            -1.7140540480613708e-01 5.7545197010040283e-01</leafValues></_></weakClassifiers></_></stages>
  <features>
    <_>
      <rects>
        <_>
          0 0 17 8 -1.</_>
        <_>
          0 4 17 4 2.</_></rects>
      <tilted>0</tilted></_>
    <_>
      <rects>
        <_>
          0 4 20 14 -1.</_>
        <_>
          0 11 20 7 2.</_></rects>
      <tilted>0</tilted></_>
    <_>
      <rects>
        <_>
          0 5 2 10 -1.</_>
        <_>
          1 5 1 10 2.</_></rects>
      <tilted>0</tilted></_>
    <_>
      <rects>
        <_>
          0 8 6 3 -1.</_>
        <_>
          2 8 2 3 3.</_></rects>
      <tilted>0</tilted></_>
    <_>
      <rects>
        <_>
          0 8 6 5 -1.</_>
        <_>
          2 8 2 5 3.</_></rects>
      <tilted>0</tilted></_>
    <_>
      <rects>
        <_>
          0 8 15 5 -1.</_>
        <_>
          5 8 5 5 3.</_></rects>
      <tilted>0</tilted></_>
    <_>
      <rects>
        <_>
          0 9 6 3 -1.</_>
        <_>
          2 9 2 3 3.</_></rects>
      <tilted>0</tilted></_>
    <_>
      <rects>
        <_>
          0 9 6 4 -1.</_>
        <_>
          2 9 2 4 3.</_></rects>
      <tilted>0</tilted></_>
    <_>
      <rects>
        <_>
          0 9 12 1 -1.</_>
        <_>
          6 9 6 1 2.</_></rects>
      <tilted>0</tilted></_>
    <_>
      <rects>
        <_>
          0 10 4 3 -1.</_>
        <_>
          2 10 2 3 2.</_></rects>
      <tilted>0</tilted></_>
    <_>
      <rects>
        <_>
          0 12 6 1 -1.</_>
        <_>
          3 12 3 1 2.</_></rects>
      <tilted>0</tilted></_>
    <_>
      <rects>
        <_>
          0 12 9 1 -1.</_>
        <_>
          3 12 3 1 3.</_></rects>
      <tilted>0</tilted></_>
    <_>
      <rects>
        <_>
          0 12 6 2 -1.</_>
        <_>
          3 12 3 2 2.</_></rects>
      <tilted>0</tilted></_>
    <_>
      <rects>
        <_>
          0 13 6 2 -1.</_>
        <_>
          3 13 3 2 2.</_></rects>
      <tilted>0</tilted></_>
    <_>
      <rects>
        <_>
          0 16 14 4 -1.</_>
        <_>
          0 18 14 2 2.</_></rects>
      <tilted>0</tilted></_>
    <_>
      <rects>
        <_>
          1 0 14 8 -1.</_>
        <_>
          1 4 14 4 2.</_></rects>
      <tilted>0</tilted></_>
    <_>
      <rects>
        <_>
          1 1 18 18 -1.</_>
        <_>
          1 7 18 6 3.</_></rects>
      <tilted>0</tilted></_>
    <_>
      <rects>
        <_>
          1 6 12 3 -1.</_>
        <_>
          7 6 6 3 2.</_></rects>
      <tilted>0</tilted></_>
    <_>
      <rects>
        <_>
          1 6 18 12 -1.</_>
        <_>
          1 10 18 4 3.</_></rects>
      <tilted>0</tilted></_>
    <_>
      <rects>
        <_>
          1 8 3 3 -1.</_>
        <_>
          2 8 1 3 3.</_></rects>
      <tilted>0</tilted></_>
    <_>
      <rects>
        <_>
          1 8 10 2 -1.</_>
        <_>
          6 8 5 2 2.</_></rects>
      <tilted>0</tilted></_>
    <_>
      <rects>
        <_>
          1 13 9 2 -1.</_>
        <_>
          4 13 3 2 3.</_></rects>
      <tilted>0</tilted></_>
    <_>
      <rects>
        <_>
          1 13 12 3 -1.</_>
        <_>
          5 13 4 3 3.</_></rects>
      <tilted>0</tilted></_>
    <_>
      <rects>
        <_>
          1 14 12 2 -1.</_>
        <_>
          5 14 4 2 3.</_></rects>
      <tilted>0</tilted></_>
    <_>
      <rects>
        <_>
          2 1 2 10 -1.</_>
        <_>
          2 1 1 5 2.</_>
        <_>
          3 6 1 5 2.</_></rects>
      <tilted>0</tilted></_>
    <_>
      <rects>
        <_>
          2 1 2 12 -1.</_>
        <_>
          2 7 2 6 2.</_></rects>
      <tilted>0</tilted></_>
    <_>
      <rects>
        <_>
          2 2 2 18 -1.</_>
        <_>
          2 8 2 6 3.</_></rects>
      <tilted>0</tilted></_>
    <_>
      <rects>
        <_>
          2 3 2 8 -1.</_>
        <_>
          2 3 1 4 2.</_>
        <_>
          3 7 1 4 2.</_></rects>
      <tilted>0</tilted></_>
    <_>
      <rects>
        <_>
          2 4 16 15 -1.</_>
        <_>
          2 9 16 5 3.</_></rects>
      <tilted>0</tilted></_>
    <_>
      <rects>
        <_>
          2 5 3 4 -1.</_>
        <_>
          3 5 1 4 3.</_></rects>
      <tilted>0</tilted></_>
    <_>
      <rects>
        <_>
          2 5 6 6 -1.</_>
        <_>
          4 5 2 6 3.</_></rects>
      <tilted>0</tilted></_>
    <_>
      <rects>
        <_>
          2 5 18 5 -1.</_>
        <_>
          8 5 6 5 3.</_></rects>
      <tilted>0</tilted></_>
    <_>
      <rects>
        <_>
          2 5 16 12 -1.</_>
        <_>
          2 9 16 4 3.</_></rects>
      <tilted>0</tilted></_>
    <_>
      <rects>
        <_>
          2 5 16 15 -1.</_>
        <_>
          2 10 16 5 3.</_></rects>
      <tilted>0</tilted></_>
    <_>
      <rects>
        <_>
          2 6 18 4 -1.</_>
        <_>
          8 6 6 4 3.</_></rects>
      <tilted>0</tilted></_>
    <_>
      <rects>
        <_>
          2 6 16 6 -1.</_>
        <_>
          2 9 16 3 2.</_></rects>
      <tilted>0</tilted></_>
    <_>
      <rects>
        <_>
          2 7 3 1 -1.</_>
        <_>
          3 7 1 1 3.</_></rects>
      <tilted>0</tilted></_>
    <_>
      <rects>
        <_>
          2 7 2 4 -1.</_>
        <_>
          2 7 1 2 2.</_>
        <_>
          3 9 1 2 2.</_></rects>
      <tilted>0</tilted></_>
    <_>
      <rects>
        <_>
          2 7 10 1 -1.</_>
        <_>
          7 7 5 1 2.</_></rects>
      <tilted>0</tilted></_>
    <_>
      <rects>
        <_>
          2 7 18 9 -1.</_>
        <_>
          2 10 18 3 3.</_></rects>
      <tilted>0</tilted></_>
    <_>
      <rects>
        <_>
          2 8 2 6 -1.</_>
        <_>
          2 10 2 2 3.</_></rects>
      <tilted>0</tilted></_>
    <_>
      <rects>
        <_>
          2 12 6 3 -1.</_>
        <_>
          4 12 2 3 3.</_></rects>
      <tilted>0</tilted></_>
    <_>
      <rects>
        <_>
          2 13 9 3 -1.</_>
        <_>
          5 13 3 3 3.</_></rects>
      <tilted>0</tilted></_>
    <_>
      <rects>
        <_>
          3 3 6 7 -1.</_>
        <_>
          5 3 2 7 3.</_></rects>
      <tilted>0</tilted></_>
    <_>
      <rects>
        <_>
          3 5 2 8 -1.</_>
        <_>
          3 5 1 4 2.</_>
        <_>
          4 9 1 4 2.</_></rects>
      <tilted>0</tilted></_>
    <_>
      <rects>
        <_>
          3 7 14 9 -1.</_>
        <_>
          3 10 14 3 3.</_></rects>
      <tilted>0</tilted></_>
    <_>
      <rects>
        <_>
          3 7 15 9 -1.</_>
        <_>
          3 10 15 3 3.</_></rects>
      <tilted>0</tilted></_>
    <_>
      <rects>
        <_>
          3 8 3 1 -1.</_>
        <_>
          4 8 1 1 3.</_></rects>
      <tilted>0</tilted></_>
    <_>
      <rects>
        <_>
          3 11 6 5 -1.</_>
        <_>
          6 11 3 5 2.</_></rects>
      <tilted>0</tilted></_>
    <_>
      <rects>
        <_>
          3 14 9 2 -1.</_>
        <_>
          6 14 3 2 3.</_></rects>
      <tilted>0</tilted></_>
    <_>
      <rects>
        <_>
          4 1 5 14 -1.</_>
        <_>
          4 8 5 7 2.</_></rects>
      <tilted>0</tilted></_>
    <_>
      <rects>
        <_>
          4 2 13 18 -1.</_>
        <_>
          4 8 13 6 3.</_></rects>
      <tilted>0</tilted></_>
    <_>
      <rects>
        <_>
          4 4 3 6 -1.</_>
        <_>
          5 4 1 6 3.</_></rects>
      <tilted>0</tilted></_>
    <_>
      <rects>
        <_>
          4 4 14 8 -1.</_>
        <_>
          4 8 14 4 2.</_></rects>
      <tilted>0</tilted></_>
    <_>
      <rects>
        <_>
          4 5 2 2 -1.</_>
        <_>
          4 5 1 1 2.</_>
        <_>
          5 6 1 1 2.</_></rects>
      <tilted>0</tilted></_>
    <_>
      <rects>
        <_>
          4 5 4 7 -1.</_>
        <_>
          6 5 2 7 2.</_></rects>
      <tilted>0</tilted></_>
    <_>
      <rects>
        <_>
          4 6 3 4 -1.</_>
        <_>
          5 6 1 4 3.</_></rects>
      <tilted>0</tilted></_>
    <_>
      <rects>
        <_>
          4 6 6 6 -1.</_>
        <_>
          6 6 2 6 3.</_></rects>
      <tilted>0</tilted></_>
    <_>
      <rects>
        <_>
          4 6 8 4 -1.</_>
        <_>
          8 6 4 4 2.</_></rects>
      <tilted>0</tilted></_>
    <_>
      <rects>
        <_>
          4 7 1 12 -1.</_>
        <_>
          4 11 1 4 3.</_></rects>
      <tilted>0</tilted></_>
    <_>
      <rects>
        <_>
          4 7 8 2 -1.</_>
        <_>
          8 7 4 2 2.</_></rects>
      <tilted>0</tilted></_>
    <_>
      <rects>
        <_>
          4 8 2 12 -1.</_>
        <_>
          4 12 2 4 3.</_></rects>
      <tilted>0</tilted></_>
    <_>
      <rects>
        <_>
          4 8 6 6 -1.</_>
        <_>
          4 8 3 3 2.</_>
        <_>
          7 11 3 3 2.</_></rects>
      <tilted>0</tilted></_>
    <_>
      <rects>
        <_>
          4 8 6 6 -1.</_>
        <_>
          4 10 6 2 3.</_></rects>
      <tilted>0</tilted></_>
    <_>
      <rects>
        <_>
          4 9 6 6 -1.</_>
        <_>
          4 9 3 3 2.</_>
        <_>
          7 12 3 3 2.</_></rects>
      <tilted>0</tilted></_>
    <_>
      <rects>
        <_>
          4 9 12 1 -1.</_>
        <_>
          8 9 4 1 3.</_></rects>
      <tilted>0</tilted></_>
    <_>
      <rects>
        <_>
          4 9 14 6 -1.</_>
        <_>
          4 9 7 3 2.</_>
        <_>
          11 12 7 3 2.</_></rects>
      <tilted>0</tilted></_>
    <_>
      <rects>
        <_>
          4 10 6 7 -1.</_>
        <_>
          6 10 2 7 3.</_></rects>
      <tilted>0</tilted></_>
    <_>
      <rects>
        <_>
          4 11 2 1 -1.</_>
        <_>
          5 11 1 1 2.</_></rects>
      <tilted>0</tilted></_>
    <_>
      <rects>
        <_>
          4 11 12 9 -1.</_>
        <_>
          4 14 12 3 3.</_></rects>
      <tilted>0</tilted></_>
    <_>
      <rects>
        <_>
          4 11 13 6 -1.</_>
        <_>
          4 14 13 3 2.</_></rects>
      <tilted>0</tilted></_>
    <_>
      <rects>
        <_>
          4 14 11 6 -1.</_>
        <_>
          4 17 11 3 2.</_></rects>
      <tilted>0</tilted></_>
    <_>
      <rects>
        <_>
          5 0 4 14 -1.</_>
        <_>
          5 7 4 7 2.</_></rects>
      <tilted>0</tilted></_>
    <_>
      <rects>
        <_>
          5 5 12 15 -1.</_>
        <_>
          5 10 12 5 3.</_></rects>
      <tilted>0</tilted></_>
    <_>
      <rects>
        <_>
          5 6 3 2 -1.</_>
        <_>
          6 6 1 2 3.</_></rects>
      <tilted>0</tilted></_>
    <_>
      <rects>
        <_>
          5 6 2 3 -1.</_>
        <_>
          6 6 1 3 2.</_></rects>
      <tilted>0</tilted></_>
    <_>
      <rects>
        <_>
          5 6 12 4 -1.</_>
        <_>
          9 6 4 4 3.</_></rects>
      <tilted>0</tilted></_>
    <_>
      <rects>
        <_>
          5 8 4 8 -1.</_>
        <_>
          5 8 2 4 2.</_>
        <_>
          7 12 2 4 2.</_></rects>
      <tilted>0</tilted></_>
    <_>
      <rects>
        <_>
          6 0 12 1 -1.</_>
        <_>
          12 0 6 1 2.</_></rects>
      <tilted>0</tilted></_>
    <_>
      <rects>
        <_>
          6 11 12 4 -1.</_>
        <_>
          10 11 4 4 3.</_></rects>
      <tilted>0</tilted></_>
    <_>
      <rects>
        <_>
          6 13 6 3 -1.</_>
        <_>
          9 13 3 3 2.</_></rects>
      <tilted>0</tilted></_>
    <_>
      <rects>
        <_>
          6 13 12 4 -1.</_>
        <_>
          10 13 4 4 3.</_></rects>
      <tilted>0</tilted></_>
    <_>
      <rects>
        <_>
          7 4 13 16 -1.</_>
        <_>
          7 12 13 8 2.</_></rects>
      <tilted>0</tilted></_>
    <_>
      <rects>
        <_>
          7 9 4 1 -1.</_>
        <_>
          9 9 2 1 2.</_></rects>
      <tilted>0</tilted></_>
    <_>
      <rects>
        <_>
          7 10 6 7 -1.</_>
        <_>
          9 10 2 7 3.</_></rects>
      <tilted>0</tilted></_>
    <_>
      <rects>
        <_>
          7 12 6 5 -1.</_>
        <_>
          9 12 2 5 3.</_></rects>
      <tilted>0</tilted></_>
    <_>
      <rects>
        <_>
          7 13 6 3 -1.</_>
        <_>
          10 13 3 3 2.</_></rects>
      <tilted>0</tilted></_>
    <_>
      <rects>
        <_>
          7 13 12 3 -1.</_>
        <_>
          11 13 4 3 3.</_></rects>
      <tilted>0</tilted></_>
    <_>
      <rects>
        <_>
          7 14 12 2 -1.</_>
        <_>
          11 14 4 2 3.</_></rects>
      <tilted>0</tilted></_>
    <_>
      <rects>
        <_>
          7 18 7 2 -1.</_>
        <_>
          7 19 7 1 2.</_></rects>
      <tilted>0</tilted></_>
    <_>
      <rects>
        <_>
          8 0 5 18 -1.</_>
        <_>
          8 6 5 6 3.</_></rects>
      <tilted>0</tilted></_>
    <_>
      <rects>
        <_>
          8 4 2 10 -1.</_>
        <_>
          8 9 2 5 2.</_></rects>
      <tilted>0</tilted></_>
    <_>
      <rects>
        <_>
          8 5 8 4 -1.</_>
        <_>
          12 5 4 4 2.</_></rects>
      <tilted>0</tilted></_>
    <_>
      <rects>
        <_>
          8 6 10 4 -1.</_>
        <_>
          13 6 5 4 2.</_></rects>
      <tilted>0</tilted></_>
    <_>
      <rects>
        <_>
          8 7 10 1 -1.</_>
        <_>
          13 7 5 1 2.</_></rects>
      <tilted>0</tilted></_>
    <_>
      <rects>
        <_>
          8 8 12 1 -1.</_>
        <_>
          14 8 6 1 2.</_></rects>
      <tilted>0</tilted></_>
    <_>
      <rects>
        <_>
          8 9 2 2 -1.</_>
        <_>
          9 9 1 2 2.</_></rects>
      <tilted>0</tilted></_>
    <_>
      <rects>
        <_>
          8 9 4 1 -1.</_>
        <_>
          10 9 2 1 2.</_></rects>
      <tilted>0</tilted></_>
    <_>
      <rects>
        <_>
          8 9 4 2 -1.</_>
        <_>
          8 10 4 1 2.</_></rects>
      <tilted>0</tilted></_>
    <_>
      <rects>
        <_>
          8 9 5 6 -1.</_>
        <_>
          8 12 5 3 2.</_></rects>
      <tilted>0</tilted></_>
    <_>
      <rects>
        <_>
          8 10 5 2 -1.</_>
        <_>
          8 11 5 1 2.</_></rects>
      <tilted>0</tilted></_>
    <_>
      <rects>
        <_>
          8 10 10 8 -1.</_>
        <_>
          8 14 10 4 2.</_></rects>
      <tilted>0</tilted></_>
    <_>
      <rects>
        <_>
          8 13 12 3 -1.</_>
        <_>
          12 13 4 3 3.</_></rects>
      <tilted>0</tilted></_>
    <_>
      <rects>
        <_>
          8 14 2 6 -1.</_>
        <_>
          8 16 2 2 3.</_></rects>
      <tilted>0</tilted></_>
    <_>
      <rects>
        <_>
          9 0 1 12 -1.</_>
        <_>
          9 4 1 4 3.</_></rects>
      <tilted>0</tilted></_>
    <_>
      <rects>
        <_>
          9 0 2 9 -1.</_>
        <_>
          9 3 2 3 3.</_></rects>
      <tilted>0</tilted></_>
    <_>
      <rects>
        <_>
          9 4 1 6 -1.</_>
        <_>
          9 7 1 3 2.</_></rects>
      <tilted>0</tilted></_>
    <_>
      <rects>
        <_>
          9 6 1 4 -1.</_>
        <_>
          9 8 1 2 2.</_></rects>
      <tilted>0</tilted></_>
    <_>
      <rects>
        <_>
          9 6 1 6 -1.</_>
        <_>
          9 9 1 3 2.</_></rects>
      <tilted>0</tilted></_>
    <_>
      <rects>
        <_>
          9 7 1 4 -1.</_>
        <_>
          9 9 1 2 2.</_></rects>
      <tilted>0</tilted></_>
    <_>
      <rects>
        <_>
          9 7 3 3 -1.</_>
        <_>
          10 7 1 3 3.</_></rects>
      <tilted>0</tilted></_>
    <_>
      <rects>
        <_>
          9 7 2 2 -1.</_>
        <_>
          9 8 2 1 2.</_></rects>
      <tilted>0</tilted></_>
    <_>
      <rects>
        <_>
          9 8 1 2 -1.</_>
        <_>
          9 9 1 1 2.</_></rects>
      <tilted>0</tilted></_>
    <_>
      <rects>
        <_>
          9 8 2 2 -1.</_>
        <_>
          10 8 1 2 2.</_></rects>
      <tilted>0</tilted></_>
    <_>
      <rects>
        <_>
          9 8 2 2 -1.</_>
        <_>
          9 9 2 1 2.</_></rects>
      <tilted>0</tilted></_>
    <_>
      <rects>
        <_>
          9 8 4 2 -1.</_>
        <_>
          11 8 2 2 2.</_></rects>
      <tilted>0</tilted></_>
    <_>
      <rects>
        <_>
          9 9 2 1 -1.</_>
        <_>
          10 9 1 1 2.</_></rects>
      <tilted>0</tilted></_>
    <_>
      <rects>
        <_>
          9 9 3 1 -1.</_>
        <_>
          10 9 1 1 3.</_></rects>
      <tilted>0</tilted></_>
    <_>
      <rects>
        <_>
          9 9 4 1 -1.</_>
        <_>
          11 9 2 1 2.</_></rects>
      <tilted>0</tilted></_>
    <_>
      <rects>
        <_>
          9 9 2 3 -1.</_>
        <_>
          9 10 2 1 3.</_></rects>
      <tilted>0</tilted></_>
    <_>
      <rects>
        <_>
          9 10 4 1 -1.</_>
        <_>
          11 10 2 1 2.</_></rects>
      <tilted>0</tilted></_>
    <_>
      <rects>
        <_>
          9 10 3 2 -1.</_>
        <_>
          9 11 3 1 2.</_></rects>
      <tilted>0</tilted></_>
    <_>
      <rects>
        <_>
          10 0 1 8 -1.</_>
        <_>
          10 4 1 4 2.</_></rects>
      <tilted>0</tilted></_>
    <_>
      <rects>
        <_>
          10 0 1 12 -1.</_>
        <_>
          10 4 1 4 3.</_></rects>
      <tilted>0</tilted></_>
    <_>
      <rects>
        <_>
          10 6 1 4 -1.</_>
        <_>
          10 8 1 2 2.</_></rects>
      <tilted>0</tilted></_>
    <_>
      <rects>
        <_>
          10 6 6 10 -1.</_>
        <_>
          12 6 2 10 3.</_></rects>
      <tilted>0</tilted></_>
    <_>
      <rects>
        <_>
          10 7 1 2 -1.</_>
        <_>
          10 8 1 1 2.</_></rects>
      <tilted>0</tilted></_>
    <_>
      <rects>
        <_>
          10 7 1 4 -1.</_>
        <_>
          10 9 1 2 2.</_></rects>
      <tilted>0</tilted></_>
    <_>
      <rects>
        <_>
          10 7 3 3 -1.</_>
        <_>
          11 7 1 3 3.</_></rects>
      <tilted>0</tilted></_>
    <_>
      <rects>
        <_>
          10 7 6 6 -1.</_>
        <_>
          10 9 6 2 3.</_></rects>
      <tilted>0</tilted></_>
    <_>
      <rects>
        <_>
          10 8 1 2 -1.</_>
        <_>
          10 9 1 1 2.</_></rects>
      <tilted>0</tilted></_>
    <_>
      <rects>
        <_>
          10 8 2 2 -1.</_>
        <_>
          11 8 1 2 2.</_></rects>
      <tilted>0</tilted></_>
    <_>
      <rects>
        <_>
          10 8 1 4 -1.</_>
        <_>
          10 10 1 2 2.</_></rects>
      <tilted>0</tilted></_>
    <_>
      <rects>
        <_>
          10 8 1 6 -1.</_>
        <_>
          10 11 1 3 2.</_></rects>
      <tilted>0</tilted></_>
    <_>
      <rects>
        <_>
          10 8 2 2 -1.</_>
        <_>
          10 9 2 1 2.</_></rects>
      <tilted>0</tilted></_>
    <_>
      <rects>
        <_>
          10 8 10 3 -1.</_>
        <_>
          15 8 5 3 2.</_></rects>
      <tilted>0</tilted></_>
    <_>
      <rects>
        <_>
          10 9 2 1 -1.</_>
        <_>
          11 9 1 1 2.</_></rects>
      <tilted>0</tilted></_>
    <_>
      <rects>
        <_>
          10 9 1 2 -1.</_>
        <_>
          10 10 1 1 2.</_></rects>
      <tilted>0</tilted></_>
    <_>
      <rects>
        <_>
          10 9 4 1 -1.</_>
        <_>
          12 9 2 1 2.</_></rects>
      <tilted>0</tilted></_>
    <_>
      <rects>
        <_>
          10 10 4 1 -1.</_>
        <_>
          12 10 2 1 2.</_></rects>
      <tilted>0</tilted></_>
    <_>
      <rects>
        <_>
          10 14 9 1 -1.</_>
        <_>
          13 14 3 1 3.</_></rects>
      <tilted>0</tilted></_>
    <_>
      <rects>
        <_>
          11 3 6 11 -1.</_>
        <_>
          13 3 2 11 3.</_></rects>
      <tilted>0</tilted></_>
    <_>
      <rects>
        <_>
          11 4 6 2 -1.</_>
        <_>
          11 4 3 1 2.</_>
        <_>
          14 5 3 1 2.</_></rects>
      <tilted>0</tilted></_>
    <_>
      <rects>
        <_>
          11 5 6 5 -1.</_>
        <_>
          13 5 2 5 3.</_></rects>
      <tilted>0</tilted></_>
    <_>
      <rects>
        <_>
          11 7 1 4 -1.</_>
        <_>
          11 9 1 2 2.</_></rects>
      <tilted>0</tilted></_>
    <_>
      <rects>
        <_>
          11 8 1 2 -1.</_>
        <_>
          11 9 1 1 2.</_></rects>
      <tilted>0</tilted></_>
    <_>
      <rects>
        <_>
          11 10 2 1 -1.</_>
        <_>
          12 10 1 1 2.</_></rects>
      <tilted>0</tilted></_>
    <_>
      <rects>
        <_>
          11 11 9 4 -1.</_>
        <_>
          14 11 3 4 3.</_></rects>
      <tilted>0</tilted></_>
    <_>
      <rects>
        <_>
          11 12 9 2 -1.</_>
        <_>
          14 12 3 2 3.</_></rects>
      <tilted>0</tilted></_>
    <_>
      <rects>
        <_>
          11 12 9 3 -1.</_>
        <_>
          14 12 3 3 3.</_></rects>
      <tilted>0</tilted></_>
    <_>
      <rects>
        <_>
          11 13 9 2 -1.</_>
        <_>
          14 13 3 2 3.</_></rects>
      <tilted>0</tilted></_>
    <_>
      <rects>
        <_>
          12 0 4 14 -1.</_>
        <_>
          12 7 4 7 2.</_></rects>
      <tilted>0</tilted></_>
    <_>
      <rects>
        <_>
          12 2 5 12 -1.</_>
        <_>
          12 8 5 6 2.</_></rects>
      <tilted>0</tilted></_>
    <_>
      <rects>
        <_>
          12 2 6 12 -1.</_>
        <_>
          12 8 6 6 2.</_></rects>
      <tilted>0</tilted></_>
    <_>
      <rects>
        <_>
          12 5 4 9 -1.</_>
        <_>
          12 8 4 3 3.</_></rects>
      <tilted>0</tilted></_>
    <_>
      <rects>
        <_>
          12 8 4 6 -1.</_>
        <_>
          12 8 2 3 2.</_>
        <_>
          14 11 2 3 2.</_></rects>
      <tilted>0</tilted></_>
    <_>
      <rects>
        <_>
          12 13 6 4 -1.</_>
        <_>
          14 13 2 4 3.</_></rects>
      <tilted>0</tilted></_>
    <_>
      <rects>
        <_>
          13 1 3 14 -1.</_>
        <_>
          13 8 3 7 2.</_></rects>
      <tilted>0</tilted></_>
    <_>
      <rects>
        <_>
          13 3 4 12 -1.</_>
        <_>
          13 9 4 6 2.</_></rects>
      <tilted>0</tilted></_>
    <_>
      <rects>
        <_>
          13 4 6 5 -1.</_>
        <_>
          15 4 2 5 3.</_></rects>
      <tilted>0</tilted></_>
    <_>
      <rects>
        <_>
          13 5 3 5 -1.</_>
        <_>
          14 5 1 5 3.</_></rects>
      <tilted>0</tilted></_>
    <_>
      <rects>
        <_>
          13 5 6 6 -1.</_>
        <_>
          15 5 2 6 3.</_></rects>
      <tilted>0</tilted></_>
    <_>
      <rects>
        <_>
          13 6 3 4 -1.</_>
        <_>
          14 6 1 4 3.</_></rects>
      <tilted>0</tilted></_>
    <_>
      <rects>
        <_>
          13 8 3 8 -1.</_>
        <_>
          13 12 3 4 2.</_></rects>
      <tilted>0</tilted></_>
    <_>
      <rects>
        <_>
          13 12 1 8 -1.</_>
        <_>
          13 16 1 4 2.</_></rects>
      <tilted>0</tilted></_>
    <_>
      <rects>
        <_>
          13 12 4 2 -1.</_>
        <_>
          13 13 4 1 2.</_></rects>
      <tilted>0</tilted></_>
    <_>
      <rects>
        <_>
          14 6 3 3 -1.</_>
        <_>
          15 6 1 3 3.</_></rects>
      <tilted>0</tilted></_>
    <_>
      <rects>
        <_>
          14 6 4 6 -1.</_>
        <_>
          14 6 2 3 2.</_>
        <_>
          16 9 2 3 2.</_></rects>
      <tilted>0</tilted></_>
    <_>
      <rects>
        <_>
          14 11 6 1 -1.</_>
        <_>
          16 11 2 1 3.</_></rects>
      <tilted>0</tilted></_>
    <_>
      <rects>
        <_>
          14 12 2 2 -1.</_>
        <_>
          15 12 1 2 2.</_></rects>
      <tilted>0</tilted></_>
    <_>
      <rects>
        <_>
          15 2 3 18 -1.</_>
        <_>
          15 8 3 6 3.</_></rects>
      <tilted>0</tilted></_>
    <_>
      <rects>
        <_>
          15 7 3 3 -1.</_>
        <_>
          16 7 1 3 3.</_></rects>
      <tilted>0</tilted></_>
    <_>
      <rects>
        <_>
          15 8 2 1 -1.</_>
        <_>
          16 8 1 1 2.</_></rects>
      <tilted>0</tilted></_>
    <_>
      <rects>
        <_>
          15 11 1 3 -1.</_>
        <_>
          15 12 1 1 3.</_></rects>
      <tilted>0</tilted></_>
    <_>
      <rects>
        <_>
          16 8 2 3 -1.</_>
        <_>
          17 8 1 3 2.</_></rects>
      <tilted>0</tilted></_>
    <_>
      <rects>
        <_>
          16 11 4 1 -1.</_>
        <_>
          18 11 2 1 2.</_></rects>
      <tilted>0</tilted></_>
    <_>
      <rects>
        <_>
          16 12 4 1 -1.</_>
        <_>
          18 12 2 1 2.</_></rects>
      <tilted>0</tilted></_>
    <_>
      <rects>
        <_>
          17 7 3 3 -1.</_>
        <_>
          18 7 1 3 3.</_></rects>
      <tilted>0</tilted></_>
    <_>
      <rects>
        <_>
          17 7 2 6 -1.</_>
        <_>
          17 7 1 3 2.</_>
        <_>
          18 10 1 3 2.</_></rects>
      <tilted>0</tilted></_>
    <_>
      <rects>
        <_>
          18 7 2 6 -1.</_>
        <_>
          19 7 1 6 2.</_></rects>
      <tilted>0</tilted></_>
    <_>
      <rects>
        <_>
          18 7 2 7 -1.</_>
        <_>
          19 7 1 7 2.</_></rects>
      <tilted>0</tilted></_>
    <_>
      <rects>
        <_>
          18 7 2 9 -1.</_>
        <_>
          19 7 1 9 2.</_></rects>
      <tilted>0</tilted></_></features></cascade>
</opencv_storage>
